digraph Tree {
node [shape=box, style="filled, rounded", color="black", fontname=helvetica] ;
edge [fontname=helvetica] ;
0 [label="reaction_time <= 1.895\ngini = 0.175\nsamples = 559\nvalue = [505, 54]\nclass = NoHits", fillcolor="#e58139e4"] ;
1 [label="brake_total_mean <= 0.852\ngini = 0.084\nsamples = 479\nvalue = [458, 21]\nclass = NoHits", fillcolor="#e58139f3"] ;
0 -> 1 [labeldistance=2.5, labelangle=45, headlabel="True"] ;
2 [label="steering_total_var <= 0.0\ngini = 0.5\nsamples = 16\nvalue = [8, 8]\nclass = NoHits", fillcolor="#e5813900"] ;
1 -> 2 ;
3 [label="gini = 0.0\nsamples = 6\nvalue = [6, 0]\nclass = NoHits", fillcolor="#e58139ff"] ;
2 -> 3 ;
4 [label="gini = 0.32\nsamples = 10\nvalue = [2, 8]\nclass = Hits", fillcolor="#399de5bf"] ;
2 -> 4 ;
5 [label="total_time <= 136.3\ngini = 0.055\nsamples = 463\nvalue = [450, 13]\nclass = NoHits", fillcolor="#e58139f8"] ;
1 -> 5 ;
6 [label="gini = 0.043\nsamples = 457\nvalue = [447, 10]\nclass = NoHits", fillcolor="#e58139f9"] ;
5 -> 6 ;
7 [label="gini = 0.5\nsamples = 6\nvalue = [3, 3]\nclass = NoHits", fillcolor="#e5813900"] ;
5 -> 7 ;
8 [label="steering_total_var <= 0.002\ngini = 0.485\nsamples = 80\nvalue = [47, 33]\nclass = NoHits", fillcolor="#e581394c"] ;
0 -> 8 [labeldistance=2.5, labelangle=-45, headlabel="False"] ;
9 [label="speed_total_mean <= 4.241\ngini = 0.437\nsamples = 65\nvalue = [44, 21]\nclass = NoHits", fillcolor="#e5813985"] ;
8 -> 9 ;
10 [label="gini = 0.0\nsamples = 7\nvalue = [0, 7]\nclass = Hits", fillcolor="#399de5ff"] ;
9 -> 10 ;
11 [label="gini = 0.366\nsamples = 58\nvalue = [44, 14]\nclass = NoHits", fillcolor="#e58139ae"] ;
9 -> 11 ;
12 [label="PKE <= 1.331\ngini = 0.32\nsamples = 15\nvalue = [3, 12]\nclass = Hits", fillcolor="#399de5bf"] ;
8 -> 12 ;
13 [label="gini = 0.48\nsamples = 5\nvalue = [3, 2]\nclass = NoHits", fillcolor="#e5813955"] ;
12 -> 13 ;
14 [label="gini = 0.0\nsamples = 10\nvalue = [0, 10]\nclass = Hits", fillcolor="#399de5ff"] ;
12 -> 14 ;
}