digraph Tree {
node [shape=box, style="filled, rounded", color="black", fontname=helvetica] ;
edge [fontname=helvetica] ;
0 [label="reaction_time <= 1.895\ngini = 0.175\nsamples = 559\nvalue = [505, 54]\nclass = NoHits", fillcolor="#e58139e4"] ;
1 [label="brake_total_mean <= 0.852\ngini = 0.084\nsamples = 479\nvalue = [458, 21]\nclass = NoHits", fillcolor="#e58139f3"] ;
0 -> 1 [labeldistance=2.5, labelangle=45, headlabel="True"] ;
2 [label="steering_total_var <= 0.0\ngini = 0.5\nsamples = 16\nvalue = [8, 8]\nclass = NoHits", fillcolor="#e5813900"] ;
1 -> 2 ;
3 [label="gini = 0.0\nsamples = 6\nvalue = [6, 0]\nclass = NoHits", fillcolor="#e58139ff"] ;
2 -> 3 ;
4 [label="age <= 25.0\ngini = 0.32\nsamples = 10\nvalue = [2, 8]\nclass = Hits", fillcolor="#399de5bf"] ;
2 -> 4 ;
5 [label="distancePed <= 217.826\ngini = 0.444\nsamples = 3\nvalue = [2, 1]\nclass = NoHits", fillcolor="#e581397f"] ;
4 -> 5 ;
6 [label="gini = 0.0\nsamples = 2\nvalue = [2, 0]\nclass = NoHits", fillcolor="#e58139ff"] ;
5 -> 6 ;
7 [label="gini = 0.0\nsamples = 1\nvalue = [0, 1]\nclass = Hits", fillcolor="#399de5ff"] ;
5 -> 7 ;
8 [label="gini = 0.0\nsamples = 7\nvalue = [0, 7]\nclass = Hits", fillcolor="#399de5ff"] ;
4 -> 8 ;
9 [label="total_time <= 136.3\ngini = 0.055\nsamples = 463\nvalue = [450, 13]\nclass = NoHits", fillcolor="#e58139f8"] ;
1 -> 9 ;
10 [label="steering_total_mean <= 0.531\ngini = 0.043\nsamples = 457\nvalue = [447, 10]\nclass = NoHits", fillcolor="#e58139f9"] ;
9 -> 10 ;
11 [label="max_speed <= 23.69\ngini = 0.039\nsamples = 456\nvalue = [447, 9]\nclass = NoHits", fillcolor="#e58139fa"] ;
10 -> 11 ;
12 [label="throttle_total_mean <= 0.951\ngini = 0.031\nsamples = 451\nvalue = [444, 7]\nclass = NoHits", fillcolor="#e58139fb"] ;
11 -> 12 ;
13 [label="acceleration_total_mean <= 0.067\ngini = 0.018\nsamples = 435\nvalue = [431, 4]\nclass = NoHits", fillcolor="#e58139fd"] ;
12 -> 13 ;
14 [label="PKE_Steering <= -0.001\ngini = 0.014\nsamples = 433\nvalue = [430, 3]\nclass = NoHits", fillcolor="#e58139fd"] ;
13 -> 14 ;
15 [label="throttle_total_var <= 0.125\ngini = 0.204\nsamples = 26\nvalue = [23, 3]\nclass = NoHits", fillcolor="#e58139de"] ;
14 -> 15 ;
16 [label="accidents <= 2.5\ngini = 0.147\nsamples = 25\nvalue = [23, 2]\nclass = NoHits", fillcolor="#e58139e9"] ;
15 -> 16 ;
17 [label="speedingTickets <= 2.5\ngini = 0.08\nsamples = 24\nvalue = [23, 1]\nclass = NoHits", fillcolor="#e58139f4"] ;
16 -> 17 ;
18 [label="gini = 0.0\nsamples = 23\nvalue = [23, 0]\nclass = NoHits", fillcolor="#e58139ff"] ;
17 -> 18 ;
19 [label="gini = 0.0\nsamples = 1\nvalue = [0, 1]\nclass = Hits", fillcolor="#399de5ff"] ;
17 -> 19 ;
20 [label="gini = 0.0\nsamples = 1\nvalue = [0, 1]\nclass = Hits", fillcolor="#399de5ff"] ;
16 -> 20 ;
21 [label="gini = 0.0\nsamples = 1\nvalue = [0, 1]\nclass = Hits", fillcolor="#399de5ff"] ;
15 -> 21 ;
22 [label="gini = 0.0\nsamples = 407\nvalue = [407, 0]\nclass = NoHits", fillcolor="#e58139ff"] ;
14 -> 22 ;
23 [label="age <= 28.5\ngini = 0.5\nsamples = 2\nvalue = [1, 1]\nclass = NoHits", fillcolor="#e5813900"] ;
13 -> 23 ;
24 [label="gini = 0.0\nsamples = 1\nvalue = [0, 1]\nclass = Hits", fillcolor="#399de5ff"] ;
23 -> 24 ;
25 [label="gini = 0.0\nsamples = 1\nvalue = [1, 0]\nclass = NoHits", fillcolor="#e58139ff"] ;
23 -> 25 ;
26 [label="speed_total_mean <= 11.397\ngini = 0.305\nsamples = 16\nvalue = [13, 3]\nclass = NoHits", fillcolor="#e58139c4"] ;
12 -> 26 ;
27 [label="throttle_total_mean <= 0.957\ngini = 0.133\nsamples = 14\nvalue = [13, 1]\nclass = NoHits", fillcolor="#e58139eb"] ;
26 -> 27 ;
28 [label="gini = 0.0\nsamples = 1\nvalue = [0, 1]\nclass = Hits", fillcolor="#399de5ff"] ;
27 -> 28 ;
29 [label="gini = 0.0\nsamples = 13\nvalue = [13, 0]\nclass = NoHits", fillcolor="#e58139ff"] ;
27 -> 29 ;
30 [label="gini = 0.0\nsamples = 2\nvalue = [0, 2]\nclass = Hits", fillcolor="#399de5ff"] ;
26 -> 30 ;
31 [label="steering_total_mean <= 0.496\ngini = 0.48\nsamples = 5\nvalue = [3, 2]\nclass = NoHits", fillcolor="#e5813955"] ;
11 -> 31 ;
32 [label="gini = 0.0\nsamples = 2\nvalue = [0, 2]\nclass = Hits", fillcolor="#399de5ff"] ;
31 -> 32 ;
33 [label="gini = 0.0\nsamples = 3\nvalue = [3, 0]\nclass = NoHits", fillcolor="#e58139ff"] ;
31 -> 33 ;
34 [label="gini = 0.0\nsamples = 1\nvalue = [0, 1]\nclass = Hits", fillcolor="#399de5ff"] ;
10 -> 34 ;
35 [label="reaction_time <= 1.423\ngini = 0.5\nsamples = 6\nvalue = [3, 3]\nclass = NoHits", fillcolor="#e5813900"] ;
9 -> 35 ;
36 [label="gini = 0.0\nsamples = 3\nvalue = [3, 0]\nclass = NoHits", fillcolor="#e58139ff"] ;
35 -> 36 ;
37 [label="gini = 0.0\nsamples = 3\nvalue = [0, 3]\nclass = Hits", fillcolor="#399de5ff"] ;
35 -> 37 ;
38 [label="steering_total_var <= 0.002\ngini = 0.485\nsamples = 80\nvalue = [47, 33]\nclass = NoHits", fillcolor="#e581394c"] ;
0 -> 38 [labeldistance=2.5, labelangle=-45, headlabel="False"] ;
39 [label="speed_total_mean <= 4.241\ngini = 0.437\nsamples = 65\nvalue = [44, 21]\nclass = NoHits", fillcolor="#e5813985"] ;
38 -> 39 ;
40 [label="gini = 0.0\nsamples = 7\nvalue = [0, 7]\nclass = Hits", fillcolor="#399de5ff"] ;
39 -> 40 ;
41 [label="max_speed <= 19.214\ngini = 0.366\nsamples = 58\nvalue = [44, 14]\nclass = NoHits", fillcolor="#e58139ae"] ;
39 -> 41 ;
42 [label="total_time <= 25.793\ngini = 0.269\nsamples = 50\nvalue = [42, 8]\nclass = NoHits", fillcolor="#e58139ce"] ;
41 -> 42 ;
43 [label="brake_total_var <= 0.061\ngini = 0.172\nsamples = 42\nvalue = [38, 4]\nclass = NoHits", fillcolor="#e58139e4"] ;
42 -> 43 ;
44 [label="acceleration_total_mean <= 0.03\ngini = 0.057\nsamples = 34\nvalue = [33, 1]\nclass = NoHits", fillcolor="#e58139f7"] ;
43 -> 44 ;
45 [label="gini = 0.0\nsamples = 32\nvalue = [32, 0]\nclass = NoHits", fillcolor="#e58139ff"] ;
44 -> 45 ;
46 [label="age <= 22.5\ngini = 0.5\nsamples = 2\nvalue = [1, 1]\nclass = NoHits", fillcolor="#e5813900"] ;
44 -> 46 ;
47 [label="gini = 0.0\nsamples = 1\nvalue = [0, 1]\nclass = Hits", fillcolor="#399de5ff"] ;
46 -> 47 ;
48 [label="gini = 0.0\nsamples = 1\nvalue = [1, 0]\nclass = NoHits", fillcolor="#e58139ff"] ;
46 -> 48 ;
49 [label="total_time <= 14.515\ngini = 0.469\nsamples = 8\nvalue = [5, 3]\nclass = NoHits", fillcolor="#e5813966"] ;
43 -> 49 ;
50 [label="gini = 0.0\nsamples = 4\nvalue = [4, 0]\nclass = NoHits", fillcolor="#e58139ff"] ;
49 -> 50 ;
51 [label="steering_total_var <= 0.0\ngini = 0.375\nsamples = 4\nvalue = [1, 3]\nclass = Hits", fillcolor="#399de5aa"] ;
49 -> 51 ;
52 [label="gini = 0.0\nsamples = 1\nvalue = [1, 0]\nclass = NoHits", fillcolor="#e58139ff"] ;
51 -> 52 ;
53 [label="gini = 0.0\nsamples = 3\nvalue = [0, 3]\nclass = Hits", fillcolor="#399de5ff"] ;
51 -> 53 ;
54 [label="speed_react <= 8.904\ngini = 0.5\nsamples = 8\nvalue = [4, 4]\nclass = NoHits", fillcolor="#e5813900"] ;
42 -> 54 ;
55 [label="gini = 0.0\nsamples = 3\nvalue = [0, 3]\nclass = Hits", fillcolor="#399de5ff"] ;
54 -> 55 ;
56 [label="reaction_time <= 2.022\ngini = 0.32\nsamples = 5\nvalue = [4, 1]\nclass = NoHits", fillcolor="#e58139bf"] ;
54 -> 56 ;
57 [label="gini = 0.0\nsamples = 1\nvalue = [0, 1]\nclass = Hits", fillcolor="#399de5ff"] ;
56 -> 57 ;
58 [label="gini = 0.0\nsamples = 4\nvalue = [4, 0]\nclass = NoHits", fillcolor="#e58139ff"] ;
56 -> 58 ;
59 [label="throttle_total_var <= 0.009\ngini = 0.375\nsamples = 8\nvalue = [2, 6]\nclass = Hits", fillcolor="#399de5aa"] ;
41 -> 59 ;
60 [label="gini = 0.0\nsamples = 2\nvalue = [2, 0]\nclass = NoHits", fillcolor="#e58139ff"] ;
59 -> 60 ;
61 [label="gini = 0.0\nsamples = 6\nvalue = [0, 6]\nclass = Hits", fillcolor="#399de5ff"] ;
59 -> 61 ;
62 [label="speed_react <= 9.487\ngini = 0.32\nsamples = 15\nvalue = [3, 12]\nclass = Hits", fillcolor="#399de5bf"] ;
38 -> 62 ;
63 [label="gini = 0.0\nsamples = 3\nvalue = [3, 0]\nclass = NoHits", fillcolor="#e58139ff"] ;
62 -> 63 ;
64 [label="gini = 0.0\nsamples = 12\nvalue = [0, 12]\nclass = Hits", fillcolor="#399de5ff"] ;
62 -> 64 ;
}